Language model created by QuickLM on Mon Jan  1 18:23:59 EST 2018
Copyright (c) 1996-2010 Carnegie Mellon University and Alexander I. Rudnicky

The model is in standard ARPA format, designed by Doug Paul while he was at MITRE.

The code that was used to produce this language model is available in Open Source.
Please visit http://www.speech.cs.cmu.edu/tools/ for more information

The (fixed) discount mass is 0.5. The backoffs are computed using the ratio method.
This model based on a corpus of 14 sentences and 16 words

\data\
ngram 1=16
ngram 2=28
ngram 3=14

\1-grams:
-0.7782 </s> -0.3010
-0.7782 <s> -0.2218
-1.9243 COPY -0.2218
-1.9243 CUT -0.2218
-1.9243 DELETE -0.2218
-1.9243 FIND -0.2218
-1.9243 FORMAT -0.2218
-1.9243 GO_TO_LINE -0.2218
-1.9243 HELLO_WORLD -0.2218
-1.9243 PASTE -0.2218
-1.9243 QUICK_OPEN -0.2218
-1.9243 REDO -0.2218
-1.9243 SEARCH -0.2218
-1.9243 SELECT_ALL -0.2218
-1.9243 STOP_LISTEN -0.2218
-1.9243 UNDO -0.2218

\2-grams:
-1.4472 <s> COPY 0.0000
-1.4472 <s> CUT 0.0000
-1.4472 <s> DELETE 0.0000
-1.4472 <s> FIND 0.0000
-1.4472 <s> FORMAT 0.0000
-1.4472 <s> GO_TO_LINE 0.0000
-1.4472 <s> HELLO_WORLD 0.0000
-1.4472 <s> PASTE 0.0000
-1.4472 <s> QUICK_OPEN 0.0000
-1.4472 <s> REDO 0.0000
-1.4472 <s> SEARCH 0.0000
-1.4472 <s> SELECT_ALL 0.0000
-1.4472 <s> STOP_LISTEN 0.0000
-1.4472 <s> UNDO 0.0000
-0.3010 COPY </s> -0.3010
-0.3010 CUT </s> -0.3010
-0.3010 DELETE </s> -0.3010
-0.3010 FIND </s> -0.3010
-0.3010 FORMAT </s> -0.3010
-0.3010 GO_TO_LINE </s> -0.3010
-0.3010 HELLO_WORLD </s> -0.3010
-0.3010 PASTE </s> -0.3010
-0.3010 QUICK_OPEN </s> -0.3010
-0.3010 REDO </s> -0.3010
-0.3010 SEARCH </s> -0.3010
-0.3010 SELECT_ALL </s> -0.3010
-0.3010 STOP_LISTEN </s> -0.3010
-0.3010 UNDO </s> -0.3010

\3-grams:
-0.3010 <s> COPY </s>
-0.3010 <s> CUT </s>
-0.3010 <s> DELETE </s>
-0.3010 <s> FIND </s>
-0.3010 <s> FORMAT </s>
-0.3010 <s> GO_TO_LINE </s>
-0.3010 <s> HELLO_WORLD </s>
-0.3010 <s> PASTE </s>
-0.3010 <s> QUICK_OPEN </s>
-0.3010 <s> REDO </s>
-0.3010 <s> SEARCH </s>
-0.3010 <s> SELECT_ALL </s>
-0.3010 <s> STOP_LISTEN </s>
-0.3010 <s> UNDO </s>

\end\
